digraph Tree {
node [shape=box, style="filled, rounded", color="black", fontname=helvetica] ;
edge [fontname=helvetica] ;
0 [label="Pclass <= 2.5\ngini = 0.48\nsamples = 574\nvalue = [541, 350]\nclass = S", fillcolor="#f6d3b9"] ;
1 [label="Pclass <= 1.5\ngini = 0.49\nsamples = 252\nvalue = [169, 228]\nclass = u", fillcolor="#cce6f8"] ;
0 -> 1 [labeldistance=2.5, labelangle=45, headlabel="True"] ;
2 [label="Sex <= 0.5\ngini = 0.47\nsamples = 139\nvalue = [90, 143]\nclass = u", fillcolor="#b6dbf5"] ;
1 -> 2 ;
3 [label="Age <= 49.5\ngini = 0.45\nsamples = 79\nvalue = [86, 45]\nclass = S", fillcolor="#f3c3a1"] ;
2 -> 3 ;
4 [label="SibSp <= 0.5\ngini = 0.49\nsamples = 62\nvalue = [57, 44]\nclass = S", fillcolor="#f9e2d2"] ;
3 -> 4 ;
5 [label="Parch <= 1.5\ngini = 0.48\nsamples = 45\nvalue = [42, 28]\nclass = S", fillcolor="#f6d5bd"] ;
4 -> 5 ;
6 [label="Embarked <= 0.5\ngini = 0.49\nsamples = 44\nvalue = [37, 28]\nclass = S", fillcolor="#f9e0cf"] ;
5 -> 6 ;
7 [label="Age <= 32.5\ngini = 0.48\nsamples = 30\nvalue = [27, 18]\nclass = S", fillcolor="#f6d5bd"] ;
6 -> 7 ;
8 [label="Age <= 28.5\ngini = 0.42\nsamples = 19\nvalue = [19, 8]\nclass = S", fillcolor="#f0b68c"] ;
7 -> 8 ;
9 [label="Age <= 24.0\ngini = 0.44\nsamples = 17\nvalue = [16, 8]\nclass = S", fillcolor="#f2c09c"] ;
8 -> 9 ;
10 [label="Age <= 10.0\ngini = 0.41\nsamples = 14\nvalue = [15, 6]\nclass = S", fillcolor="#efb388"] ;
9 -> 10 ;
11 [label="gini = 0.43\nsamples = 13\nvalue = [13, 6]\nclass = S", fillcolor="#f1bb94"] ;
10 -> 11 ;
12 [label="gini = 0.0\nsamples = 1\nvalue = [2, 0]\nclass = S", fillcolor="#e58139"] ;
10 -> 12 ;
13 [label="Age <= 27.5\ngini = 0.44\nsamples = 3\nvalue = [1, 2]\nclass = u", fillcolor="#9ccef2"] ;
9 -> 13 ;
14 [label="gini = 0.0\nsamples = 1\nvalue = [0, 1]\nclass = u", fillcolor="#399de5"] ;
13 -> 14 ;
15 [label="gini = 0.5\nsamples = 2\nvalue = [1, 1]\nclass = S", fillcolor="#ffffff"] ;
13 -> 15 ;
16 [label="gini = 0.0\nsamples = 2\nvalue = [3, 0]\nclass = S", fillcolor="#e58139"] ;
8 -> 16 ;
17 [label="Parch <= 0.5\ngini = 0.49\nsamples = 11\nvalue = [8, 10]\nclass = u", fillcolor="#d7ebfa"] ;
7 -> 17 ;
18 [label="Age <= 37.5\ngini = 0.48\nsamples = 10\nvalue = [7, 10]\nclass = u", fillcolor="#c4e2f7"] ;
17 -> 18 ;
19 [label="gini = 0.0\nsamples = 3\nvalue = [0, 6]\nclass = u", fillcolor="#399de5"] ;
18 -> 19 ;
20 [label="Age <= 47.5\ngini = 0.46\nsamples = 7\nvalue = [7, 4]\nclass = S", fillcolor="#f4c9aa"] ;
18 -> 20 ;
21 [label="Age <= 46.0\ngini = 0.42\nsamples = 6\nvalue = [7, 3]\nclass = S", fillcolor="#f0b78e"] ;
20 -> 21 ;
22 [label="Age <= 40.5\ngini = 0.47\nsamples = 4\nvalue = [5, 3]\nclass = S", fillcolor="#f5cdb0"] ;
21 -> 22 ;
23 [label="gini = 0.0\nsamples = 1\nvalue = [1, 0]\nclass = S", fillcolor="#e58139"] ;
22 -> 23 ;
24 [label="Age <= 43.5\ngini = 0.49\nsamples = 3\nvalue = [4, 3]\nclass = S", fillcolor="#f8e0ce"] ;
22 -> 24 ;
25 [label="gini = 0.0\nsamples = 1\nvalue = [0, 1]\nclass = u", fillcolor="#399de5"] ;
24 -> 25 ;
26 [label="gini = 0.44\nsamples = 2\nvalue = [4, 2]\nclass = S", fillcolor="#f2c09c"] ;
24 -> 26 ;
27 [label="gini = 0.0\nsamples = 2\nvalue = [2, 0]\nclass = S", fillcolor="#e58139"] ;
21 -> 27 ;
28 [label="gini = 0.0\nsamples = 1\nvalue = [0, 1]\nclass = u", fillcolor="#399de5"] ;
20 -> 28 ;
29 [label="gini = 0.0\nsamples = 1\nvalue = [1, 0]\nclass = S", fillcolor="#e58139"] ;
17 -> 29 ;
30 [label="Age <= 36.5\ngini = 0.5\nsamples = 14\nvalue = [10, 10]\nclass = S", fillcolor="#ffffff"] ;
6 -> 30 ;
31 [label="Parch <= 0.5\ngini = 0.47\nsamples = 11\nvalue = [6, 10]\nclass = u", fillcolor="#b0d8f5"] ;
30 -> 31 ;
32 [label="Age <= 25.0\ngini = 0.47\nsamples = 9\nvalue = [5, 8]\nclass = u", fillcolor="#b5daf5"] ;
31 -> 32 ;
33 [label="Age <= 11.5\ngini = 0.32\nsamples = 3\nvalue = [4, 1]\nclass = S", fillcolor="#eca06a"] ;
32 -> 33 ;
34 [label="gini = 0.44\nsamples = 2\nvalue = [2, 1]\nclass = S", fillcolor="#f2c09c"] ;
33 -> 34 ;
35 [label="gini = 0.0\nsamples = 1\nvalue = [2, 0]\nclass = S", fillcolor="#e58139"] ;
33 -> 35 ;
36 [label="Age <= 35.5\ngini = 0.22\nsamples = 6\nvalue = [1, 7]\nclass = u", fillcolor="#55abe9"] ;
32 -> 36 ;
37 [label="gini = 0.0\nsamples = 5\nvalue = [0, 7]\nclass = u", fillcolor="#399de5"] ;
36 -> 37 ;
38 [label="gini = 0.0\nsamples = 1\nvalue = [1, 0]\nclass = S", fillcolor="#e58139"] ;
36 -> 38 ;
39 [label="Age <= 30.0\ngini = 0.44\nsamples = 2\nvalue = [1, 2]\nclass = u", fillcolor="#9ccef2"] ;
31 -> 39 ;
40 [label="gini = 0.0\nsamples = 1\nvalue = [1, 0]\nclass = S", fillcolor="#e58139"] ;
39 -> 40 ;
41 [label="gini = 0.0\nsamples = 1\nvalue = [0, 2]\nclass = u", fillcolor="#399de5"] ;
39 -> 41 ;
42 [label="gini = 0.0\nsamples = 3\nvalue = [4, 0]\nclass = S", fillcolor="#e58139"] ;
30 -> 42 ;
43 [label="gini = 0.0\nsamples = 1\nvalue = [5, 0]\nclass = S", fillcolor="#e58139"] ;
5 -> 43 ;
44 [label="SibSp <= 1.5\ngini = 0.5\nsamples = 17\nvalue = [15, 16]\nclass = u", fillcolor="#f3f9fd"] ;
4 -> 44 ;
45 [label="Embarked <= 0.5\ngini = 0.5\nsamples = 16\nvalue = [14, 16]\nclass = u", fillcolor="#e6f3fc"] ;
44 -> 45 ;
46 [label="Age <= 40.0\ngini = 0.46\nsamples = 10\nvalue = [6, 11]\nclass = u", fillcolor="#a5d2f3"] ;
45 -> 46 ;
47 [label="Parch <= 0.5\ngini = 0.39\nsamples = 8\nvalue = [4, 11]\nclass = u", fillcolor="#81c1ee"] ;
46 -> 47 ;
48 [label="Age <= 30.0\ngini = 0.46\nsamples = 5\nvalue = [4, 7]\nclass = u", fillcolor="#aad5f4"] ;
47 -> 48 ;
49 [label="Age <= 23.0\ngini = 0.32\nsamples = 3\nvalue = [4, 1]\nclass = S", fillcolor="#eca06a"] ;
48 -> 49 ;
50 [label="gini = 0.0\nsamples = 1\nvalue = [2, 0]\nclass = S", fillcolor="#e58139"] ;
49 -> 50 ;
51 [label="Age <= 28.0\ngini = 0.44\nsamples = 2\nvalue = [2, 1]\nclass = S", fillcolor="#f2c09c"] ;
49 -> 51 ;
52 [label="gini = 0.0\nsamples = 1\nvalue = [0, 1]\nclass = u", fillcolor="#399de5"] ;
51 -> 52 ;
53 [label="gini = 0.0\nsamples = 1\nvalue = [2, 0]\nclass = S", fillcolor="#e58139"] ;
51 -> 53 ;
54 [label="gini = 0.0\nsamples = 2\nvalue = [0, 6]\nclass = u", fillcolor="#399de5"] ;
48 -> 54 ;
55 [label="gini = 0.0\nsamples = 3\nvalue = [0, 4]\nclass = u", fillcolor="#399de5"] ;
47 -> 55 ;
56 [label="gini = 0.0\nsamples = 2\nvalue = [2, 0]\nclass = S", fillcolor="#e58139"] ;
46 -> 56 ;
57 [label="Age <= 38.0\ngini = 0.47\nsamples = 6\nvalue = [8, 5]\nclass = S", fillcolor="#f5d0b5"] ;
45 -> 57 ;
58 [label="Age <= 26.5\ngini = 0.2\nsamples = 3\nvalue = [8, 1]\nclass = S", fillcolor="#e89152"] ;
57 -> 58 ;
59 [label="Age <= 21.5\ngini = 0.44\nsamples = 2\nvalue = [2, 1]\nclass = S", fillcolor="#f2c09c"] ;
58 -> 59 ;
60 [label="gini = 0.0\nsamples = 1\nvalue = [2, 0]\nclass = S", fillcolor="#e58139"] ;
59 -> 60 ;
61 [label="gini = 0.0\nsamples = 1\nvalue = [0, 1]\nclass = u", fillcolor="#399de5"] ;
59 -> 61 ;
62 [label="gini = 0.0\nsamples = 1\nvalue = [6, 0]\nclass = S", fillcolor="#e58139"] ;
58 -> 62 ;
63 [label="gini = 0.0\nsamples = 3\nvalue = [0, 4]\nclass = u", fillcolor="#399de5"] ;
57 -> 63 ;
64 [label="gini = 0.0\nsamples = 1\nvalue = [1, 0]\nclass = S", fillcolor="#e58139"] ;
44 -> 64 ;
65 [label="Embarked <= 0.5\ngini = 0.06\nsamples = 17\nvalue = [29, 1]\nclass = S", fillcolor="#e68540"] ;
3 -> 65 ;
66 [label="gini = 0.0\nsamples = 10\nvalue = [18, 0]\nclass = S", fillcolor="#e58139"] ;
65 -> 66 ;
67 [label="Age <= 59.0\ngini = 0.15\nsamples = 7\nvalue = [11, 1]\nclass = S", fillcolor="#e78c4b"] ;
65 -> 67 ;
68 [label="gini = 0.0\nsamples = 4\nvalue = [7, 0]\nclass = S", fillcolor="#e58139"] ;
67 -> 68 ;
69 [label="SibSp <= 0.5\ngini = 0.32\nsamples = 3\nvalue = [4, 1]\nclass = S", fillcolor="#eca06a"] ;
67 -> 69 ;
70 [label="gini = 0.0\nsamples = 2\nvalue = [4, 0]\nclass = S", fillcolor="#e58139"] ;
69 -> 70 ;
71 [label="gini = 0.0\nsamples = 1\nvalue = [0, 1]\nclass = u", fillcolor="#399de5"] ;
69 -> 71 ;
72 [label="Embarked <= 0.5\ngini = 0.08\nsamples = 60\nvalue = [4, 98]\nclass = u", fillcolor="#41a1e6"] ;
2 -> 72 ;
73 [label="Age <= 9.0\ngini = 0.14\nsamples = 31\nvalue = [4, 49]\nclass = u", fillcolor="#49a5e7"] ;
72 -> 73 ;
74 [label="Parch <= 1.0\ngini = 0.44\nsamples = 2\nvalue = [2, 1]\nclass = S", fillcolor="#f2c09c"] ;
73 -> 74 ;
75 [label="gini = 0.0\nsamples = 1\nvalue = [0, 1]\nclass = u", fillcolor="#399de5"] ;
74 -> 75 ;
76 [label="gini = 0.0\nsamples = 1\nvalue = [2, 0]\nclass = S", fillcolor="#e58139"] ;
74 -> 76 ;
77 [label="Age <= 25.5\ngini = 0.08\nsamples = 29\nvalue = [2, 48]\nclass = u", fillcolor="#41a1e6"] ;
73 -> 77 ;
78 [label="SibSp <= 0.5\ngini = 0.2\nsamples = 11\nvalue = [2, 16]\nclass = u", fillcolor="#52a9e8"] ;
77 -> 78 ;
79 [label="gini = 0.0\nsamples = 7\nvalue = [0, 10]\nclass = u", fillcolor="#399de5"] ;
78 -> 79 ;
80 [label="SibSp <= 2.0\ngini = 0.38\nsamples = 4\nvalue = [2, 6]\nclass = u", fillcolor="#7bbeee"] ;
78 -> 80 ;
81 [label="Age <= 23.5\ngini = 0.5\nsamples = 2\nvalue = [2, 2]\nclass = S", fillcolor="#ffffff"] ;
80 -> 81 ;
82 [label="gini = 0.0\nsamples = 1\nvalue = [0, 2]\nclass = u", fillcolor="#399de5"] ;
81 -> 82 ;
83 [label="gini = 0.0\nsamples = 1\nvalue = [2, 0]\nclass = S", fillcolor="#e58139"] ;
81 -> 83 ;
84 [label="gini = 0.0\nsamples = 2\nvalue = [0, 4]\nclass = u", fillcolor="#399de5"] ;
80 -> 84 ;
85 [label="gini = 0.0\nsamples = 18\nvalue = [0, 32]\nclass = u", fillcolor="#399de5"] ;
77 -> 85 ;
86 [label="gini = 0.0\nsamples = 29\nvalue = [0, 49]\nclass = u", fillcolor="#399de5"] ;
72 -> 86 ;
87 [label="SibSp <= 0.5\ngini = 0.5\nsamples = 113\nvalue = [79, 85]\nclass = u", fillcolor="#f1f8fd"] ;
1 -> 87 ;
88 [label="Sex <= 0.5\ngini = 0.49\nsamples = 67\nvalue = [53, 43]\nclass = S", fillcolor="#fae7da"] ;
87 -> 88 ;
89 [label="Parch <= 1.0\ngini = 0.32\nsamples = 43\nvalue = [52, 13]\nclass = S", fillcolor="#eca06a"] ;
88 -> 89 ;
90 [label="Age <= 7.5\ngini = 0.21\nsamples = 40\nvalue = [51, 7]\nclass = S", fillcolor="#e99254"] ;
89 -> 90 ;
91 [label="Embarked <= 0.5\ngini = 0.47\nsamples = 7\nvalue = [5, 3]\nclass = S", fillcolor="#f5cdb0"] ;
90 -> 91 ;
92 [label="gini = 0.44\nsamples = 5\nvalue = [4, 2]\nclass = S", fillcolor="#f2c09c"] ;
91 -> 92 ;
93 [label="gini = 0.5\nsamples = 2\nvalue = [1, 1]\nclass = S", fillcolor="#ffffff"] ;
91 -> 93 ;
94 [label="Age <= 60.5\ngini = 0.15\nsamples = 33\nvalue = [46, 4]\nclass = S", fillcolor="#e78c4a"] ;
90 -> 94 ;
95 [label="Embarked <= 1.0\ngini = 0.12\nsamples = 31\nvalue = [44, 3]\nclass = S", fillcolor="#e78a46"] ;
94 -> 95 ;
96 [label="Age <= 44.0\ngini = 0.12\nsamples = 30\nvalue = [43, 3]\nclass = S", fillcolor="#e78a47"] ;
95 -> 96 ;
97 [label="Age <= 33.0\ngini = 0.18\nsamples = 22\nvalue = [27, 3]\nclass = S", fillcolor="#e88f4f"] ;
96 -> 97 ;
98 [label="Age <= 20.0\ngini = 0.09\nsamples = 15\nvalue = [20, 1]\nclass = S", fillcolor="#e68743"] ;
97 -> 98 ;
99 [label="Age <= 18.5\ngini = 0.28\nsamples = 5\nvalue = [5, 1]\nclass = S", fillcolor="#ea9a61"] ;
98 -> 99 ;
100 [label="gini = 0.0\nsamples = 4\nvalue = [5, 0]\nclass = S", fillcolor="#e58139"] ;
99 -> 100 ;
101 [label="gini = 0.0\nsamples = 1\nvalue = [0, 1]\nclass = u", fillcolor="#399de5"] ;
99 -> 101 ;
102 [label="gini = 0.0\nsamples = 10\nvalue = [15, 0]\nclass = S", fillcolor="#e58139"] ;
98 -> 102 ;
103 [label="Age <= 34.5\ngini = 0.35\nsamples = 7\nvalue = [7, 2]\nclass = S", fillcolor="#eca572"] ;
97 -> 103 ;
104 [label="gini = 0.5\nsamples = 2\nvalue = [1, 1]\nclass = S", fillcolor="#ffffff"] ;
103 -> 104 ;
105 [label="Age <= 40.5\ngini = 0.24\nsamples = 5\nvalue = [6, 1]\nclass = S", fillcolor="#e9965a"] ;
103 -> 105 ;
106 [label="gini = 0.0\nsamples = 3\nvalue = [4, 0]\nclass = S", fillcolor="#e58139"] ;
105 -> 106 ;
107 [label="gini = 0.44\nsamples = 2\nvalue = [2, 1]\nclass = S", fillcolor="#f2c09c"] ;
105 -> 107 ;
108 [label="gini = 0.0\nsamples = 8\nvalue = [16, 0]\nclass = S", fillcolor="#e58139"] ;
96 -> 108 ;
109 [label="gini = 0.0\nsamples = 1\nvalue = [1, 0]\nclass = S", fillcolor="#e58139"] ;
95 -> 109 ;
110 [label="Age <= 64.0\ngini = 0.44\nsamples = 2\nvalue = [2, 1]\nclass = S", fillcolor="#f2c09c"] ;
94 -> 110 ;
111 [label="gini = 0.0\nsamples = 1\nvalue = [0, 1]\nclass = u", fillcolor="#399de5"] ;
110 -> 111 ;
112 [label="gini = 0.0\nsamples = 1\nvalue = [2, 0]\nclass = S", fillcolor="#e58139"] ;
110 -> 112 ;
113 [label="Age <= 18.75\ngini = 0.24\nsamples = 3\nvalue = [1, 6]\nclass = u", fillcolor="#5aade9"] ;
89 -> 113 ;
114 [label="gini = 0.0\nsamples = 2\nvalue = [0, 6]\nclass = u", fillcolor="#399de5"] ;
113 -> 114 ;
115 [label="gini = 0.0\nsamples = 1\nvalue = [1, 0]\nclass = S", fillcolor="#e58139"] ;
113 -> 115 ;
116 [label="Parch <= 0.5\ngini = 0.06\nsamples = 24\nvalue = [1, 30]\nclass = u", fillcolor="#40a0e6"] ;
88 -> 116 ;
117 [label="Embarked <= 0.5\ngini = 0.08\nsamples = 19\nvalue = [1, 23]\nclass = u", fillcolor="#42a1e6"] ;
116 -> 117 ;
118 [label="Age <= 37.0\ngini = 0.08\nsamples = 18\nvalue = [1, 22]\nclass = u", fillcolor="#42a1e6"] ;
117 -> 118 ;
119 [label="gini = 0.0\nsamples = 13\nvalue = [0, 17]\nclass = u", fillcolor="#399de5"] ;
118 -> 119 ;
120 [label="Age <= 39.0\ngini = 0.28\nsamples = 5\nvalue = [1, 5]\nclass = u", fillcolor="#61b1ea"] ;
118 -> 120 ;
121 [label="gini = 0.0\nsamples = 1\nvalue = [1, 0]\nclass = S", fillcolor="#e58139"] ;
120 -> 121 ;
122 [label="gini = 0.0\nsamples = 4\nvalue = [0, 5]\nclass = u", fillcolor="#399de5"] ;
120 -> 122 ;
123 [label="gini = 0.0\nsamples = 1\nvalue = [0, 1]\nclass = u", fillcolor="#399de5"] ;
117 -> 123 ;
124 [label="gini = 0.0\nsamples = 5\nvalue = [0, 7]\nclass = u", fillcolor="#399de5"] ;
116 -> 124 ;
125 [label="Sex <= 0.5\ngini = 0.47\nsamples = 46\nvalue = [26, 42]\nclass = u", fillcolor="#b4daf5"] ;
87 -> 125 ;
126 [label="Embarked <= 0.5\ngini = 0.42\nsamples = 22\nvalue = [23, 10]\nclass = S", fillcolor="#f0b88f"] ;
125 -> 126 ;
127 [label="Parch <= 0.5\ngini = 0.47\nsamples = 18\nvalue = [16, 10]\nclass = S", fillcolor="#f5d0b5"] ;
126 -> 127 ;
128 [label="SibSp <= 1.5\ngini = 0.14\nsamples = 9\nvalue = [12, 1]\nclass = S", fillcolor="#e78c49"] ;
127 -> 128 ;
129 [label="Age <= 33.0\ngini = 0.18\nsamples = 7\nvalue = [9, 1]\nclass = S", fillcolor="#e88f4f"] ;
128 -> 129 ;
130 [label="Age <= 26.5\ngini = 0.5\nsamples = 2\nvalue = [1, 1]\nclass = S", fillcolor="#ffffff"] ;
129 -> 130 ;
131 [label="gini = 0.0\nsamples = 1\nvalue = [1, 0]\nclass = S", fillcolor="#e58139"] ;
130 -> 131 ;
132 [label="gini = 0.0\nsamples = 1\nvalue = [0, 1]\nclass = u", fillcolor="#399de5"] ;
130 -> 132 ;
133 [label="gini = 0.0\nsamples = 5\nvalue = [8, 0]\nclass = S", fillcolor="#e58139"] ;
129 -> 133 ;
134 [label="gini = 0.0\nsamples = 2\nvalue = [3, 0]\nclass = S", fillcolor="#e58139"] ;
128 -> 134 ;
135 [label="Age <= 13.0\ngini = 0.43\nsamples = 9\nvalue = [4, 9]\nclass = u", fillcolor="#91c9f1"] ;
127 -> 135 ;
136 [label="gini = 0.0\nsamples = 5\nvalue = [0, 9]\nclass = u", fillcolor="#399de5"] ;
135 -> 136 ;
137 [label="gini = 0.0\nsamples = 4\nvalue = [4, 0]\nclass = S", fillcolor="#e58139"] ;
135 -> 137 ;
138 [label="gini = 0.0\nsamples = 4\nvalue = [7, 0]\nclass = S", fillcolor="#e58139"] ;
126 -> 138 ;
139 [label="Parch <= 1.5\ngini = 0.16\nsamples = 24\nvalue = [3, 32]\nclass = u", fillcolor="#4ca6e7"] ;
125 -> 139 ;
140 [label="SibSp <= 2.0\ngini = 0.2\nsamples = 17\nvalue = [3, 23]\nclass = u", fillcolor="#53aae8"] ;
139 -> 140 ;
141 [label="Parch <= 0.5\ngini = 0.22\nsamples = 16\nvalue = [3, 21]\nclass = u", fillcolor="#55abe9"] ;
140 -> 141 ;
142 [label="Embarked <= 0.5\ngini = 0.28\nsamples = 9\nvalue = [2, 10]\nclass = u", fillcolor="#61b1ea"] ;
141 -> 142 ;
143 [label="Age <= 43.0\ngini = 0.38\nsamples = 6\nvalue = [2, 6]\nclass = u", fillcolor="#7bbeee"] ;
142 -> 143 ;
144 [label="Age <= 27.5\ngini = 0.24\nsamples = 5\nvalue = [1, 6]\nclass = u", fillcolor="#5aade9"] ;
143 -> 144 ;
145 [label="Age <= 25.5\ngini = 0.5\nsamples = 2\nvalue = [1, 1]\nclass = S", fillcolor="#ffffff"] ;
144 -> 145 ;
146 [label="gini = 0.0\nsamples = 1\nvalue = [0, 1]\nclass = u", fillcolor="#399de5"] ;
145 -> 146 ;
147 [label="gini = 0.0\nsamples = 1\nvalue = [1, 0]\nclass = S", fillcolor="#e58139"] ;
145 -> 147 ;
148 [label="gini = 0.0\nsamples = 3\nvalue = [0, 5]\nclass = u", fillcolor="#399de5"] ;
144 -> 148 ;
149 [label="gini = 0.0\nsamples = 1\nvalue = [1, 0]\nclass = S", fillcolor="#e58139"] ;
143 -> 149 ;
150 [label="gini = 0.0\nsamples = 3\nvalue = [0, 4]\nclass = u", fillcolor="#399de5"] ;
142 -> 150 ;
151 [label="Age <= 24.0\ngini = 0.15\nsamples = 7\nvalue = [1, 11]\nclass = u", fillcolor="#4ba6e7"] ;
141 -> 151 ;
152 [label="gini = 0.0\nsamples = 3\nvalue = [0, 6]\nclass = u", fillcolor="#399de5"] ;
151 -> 152 ;
153 [label="Age <= 28.5\ngini = 0.28\nsamples = 4\nvalue = [1, 5]\nclass = u", fillcolor="#61b1ea"] ;
151 -> 153 ;
154 [label="gini = 0.0\nsamples = 1\nvalue = [1, 0]\nclass = S", fillcolor="#e58139"] ;
153 -> 154 ;
155 [label="gini = 0.0\nsamples = 3\nvalue = [0, 5]\nclass = u", fillcolor="#399de5"] ;
153 -> 155 ;
156 [label="gini = 0.0\nsamples = 1\nvalue = [0, 2]\nclass = u", fillcolor="#399de5"] ;
140 -> 156 ;
157 [label="gini = 0.0\nsamples = 7\nvalue = [0, 9]\nclass = u", fillcolor="#399de5"] ;
139 -> 157 ;
158 [label="Age <= 32.5\ngini = 0.37\nsamples = 322\nvalue = [372, 122]\nclass = S", fillcolor="#eeaa7a"] ;
0 -> 158 [labeldistance=2.5, labelangle=-45, headlabel="False"] ;
159 [label="Parch <= 0.5\ngini = 0.4\nsamples = 270\nvalue = [303, 119]\nclass = S", fillcolor="#efb287"] ;
158 -> 159 ;
160 [label="Sex <= 0.5\ngini = 0.37\nsamples = 208\nvalue = [247, 82]\nclass = S", fillcolor="#eeab7b"] ;
159 -> 160 ;
161 [label="Embarked <= 1.5\ngini = 0.21\nsamples = 155\nvalue = [219, 29]\nclass = S", fillcolor="#e89253"] ;
160 -> 161 ;
162 [label="Age <= 30.75\ngini = 0.22\nsamples = 131\nvalue = [190, 27]\nclass = S", fillcolor="#e99355"] ;
161 -> 162 ;
163 [label="Embarked <= 0.5\ngini = 0.17\nsamples = 124\nvalue = [184, 19]\nclass = S", fillcolor="#e88e4d"] ;
162 -> 163 ;
164 [label="SibSp <= 0.5\ngini = 0.12\nsamples = 102\nvalue = [155, 11]\nclass = S", fillcolor="#e78a47"] ;
163 -> 164 ;
165 [label="Age <= 26.5\ngini = 0.11\nsamples = 91\nvalue = [143, 9]\nclass = S", fillcolor="#e78945"] ;
164 -> 165 ;
166 [label="Age <= 16.5\ngini = 0.05\nsamples = 73\nvalue = [120, 3]\nclass = S", fillcolor="#e6843e"] ;
165 -> 166 ;
167 [label="Age <= 7.5\ngini = 0.1\nsamples = 34\nvalue = [51, 3]\nclass = S", fillcolor="#e78845"] ;
166 -> 167 ;
168 [label="gini = 0.08\nsamples = 29\nvalue = [45, 2]\nclass = S", fillcolor="#e68742"] ;
167 -> 168 ;
169 [label="gini = 0.24\nsamples = 5\nvalue = [6, 1]\nclass = S", fillcolor="#e9965a"] ;
167 -> 169 ;
170 [label="gini = 0.0\nsamples = 39\nvalue = [69, 0]\nclass = S", fillcolor="#e58139"] ;
166 -> 170 ;
171 [label="Age <= 27.5\ngini = 0.33\nsamples = 18\nvalue = [23, 6]\nclass = S", fillcolor="#eca26d"] ;
165 -> 171 ;
172 [label="gini = 0.28\nsamples = 3\nvalue = [1, 5]\nclass = u", fillcolor="#61b1ea"] ;
171 -> 172 ;
173 [label="Age <= 29.5\ngini = 0.08\nsamples = 15\nvalue = [22, 1]\nclass = S", fillcolor="#e68742"] ;
171 -> 173 ;
174 [label="gini = 0.0\nsamples = 9\nvalue = [16, 0]\nclass = S", fillcolor="#e58139"] ;
173 -> 174 ;
175 [label="Age <= 30.25\ngini = 0.24\nsamples = 6\nvalue = [6, 1]\nclass = S", fillcolor="#e9965a"] ;
173 -> 175 ;
176 [label="gini = 0.32\nsamples = 5\nvalue = [4, 1]\nclass = S", fillcolor="#eca06a"] ;
175 -> 176 ;
177 [label="gini = 0.0\nsamples = 1\nvalue = [2, 0]\nclass = S", fillcolor="#e58139"] ;
175 -> 177 ;
178 [label="Age <= 25.5\ngini = 0.24\nsamples = 11\nvalue = [12, 2]\nclass = S", fillcolor="#e9965a"] ;
164 -> 178 ;
179 [label="Age <= 19.0\ngini = 0.38\nsamples = 6\nvalue = [6, 2]\nclass = S", fillcolor="#eeab7b"] ;
178 -> 179 ;
180 [label="gini = 0.0\nsamples = 2\nvalue = [4, 0]\nclass = S", fillcolor="#e58139"] ;
179 -> 180 ;
181 [label="Age <= 21.0\ngini = 0.5\nsamples = 4\nvalue = [2, 2]\nclass = S", fillcolor="#ffffff"] ;
179 -> 181 ;
182 [label="gini = 0.0\nsamples = 1\nvalue = [0, 1]\nclass = u", fillcolor="#399de5"] ;
181 -> 182 ;
183 [label="Age <= 23.5\ngini = 0.44\nsamples = 3\nvalue = [2, 1]\nclass = S", fillcolor="#f2c09c"] ;
181 -> 183 ;
184 [label="gini = 0.0\nsamples = 1\nvalue = [1, 0]\nclass = S", fillcolor="#e58139"] ;
183 -> 184 ;
185 [label="gini = 0.5\nsamples = 2\nvalue = [1, 1]\nclass = S", fillcolor="#ffffff"] ;
183 -> 185 ;
186 [label="gini = 0.0\nsamples = 5\nvalue = [6, 0]\nclass = S", fillcolor="#e58139"] ;
178 -> 186 ;
187 [label="Age <= 15.5\ngini = 0.34\nsamples = 22\nvalue = [29, 8]\nclass = S", fillcolor="#eca470"] ;
163 -> 187 ;
188 [label="SibSp <= 1.0\ngini = 0.09\nsamples = 11\nvalue = [20, 1]\nclass = S", fillcolor="#e68743"] ;
187 -> 188 ;
189 [label="Age <= 5.0\ngini = 0.1\nsamples = 10\nvalue = [18, 1]\nclass = S", fillcolor="#e68844"] ;
188 -> 189 ;
190 [label="gini = 0.12\nsamples = 9\nvalue = [14, 1]\nclass = S", fillcolor="#e78a47"] ;
189 -> 190 ;
191 [label="gini = 0.0\nsamples = 1\nvalue = [4, 0]\nclass = S", fillcolor="#e58139"] ;
189 -> 191 ;
192 [label="gini = 0.0\nsamples = 1\nvalue = [2, 0]\nclass = S", fillcolor="#e58139"] ;
188 -> 192 ;
193 [label="Age <= 21.0\ngini = 0.49\nsamples = 11\nvalue = [9, 7]\nclass = S", fillcolor="#f9e3d3"] ;
187 -> 193 ;
194 [label="gini = 0.0\nsamples = 1\nvalue = [0, 2]\nclass = u", fillcolor="#399de5"] ;
193 -> 194 ;
195 [label="Age <= 29.5\ngini = 0.46\nsamples = 10\nvalue = [9, 5]\nclass = S", fillcolor="#f3c7a7"] ;
193 -> 195 ;
196 [label="SibSp <= 0.5\ngini = 0.49\nsamples = 8\nvalue = [7, 5]\nclass = S", fillcolor="#f8dbc6"] ;
195 -> 196 ;
197 [label="Age <= 24.75\ngini = 0.5\nsamples = 6\nvalue = [5, 5]\nclass = S", fillcolor="#ffffff"] ;
196 -> 197 ;
198 [label="Age <= 22.75\ngini = 0.32\nsamples = 3\nvalue = [4, 1]\nclass = S", fillcolor="#eca06a"] ;
197 -> 198 ;
199 [label="gini = 0.38\nsamples = 2\nvalue = [3, 1]\nclass = S", fillcolor="#eeab7b"] ;
198 -> 199 ;
200 [label="gini = 0.0\nsamples = 1\nvalue = [1, 0]\nclass = S", fillcolor="#e58139"] ;
198 -> 200 ;
201 [label="Age <= 27.25\ngini = 0.32\nsamples = 3\nvalue = [1, 4]\nclass = u", fillcolor="#6ab6ec"] ;
197 -> 201 ;
202 [label="gini = 0.0\nsamples = 1\nvalue = [0, 3]\nclass = u", fillcolor="#399de5"] ;
201 -> 202 ;
203 [label="Age <= 28.75\ngini = 0.5\nsamples = 2\nvalue = [1, 1]\nclass = S", fillcolor="#ffffff"] ;
201 -> 203 ;
204 [label="gini = 0.0\nsamples = 1\nvalue = [1, 0]\nclass = S", fillcolor="#e58139"] ;
203 -> 204 ;
205 [label="gini = 0.0\nsamples = 1\nvalue = [0, 1]\nclass = u", fillcolor="#399de5"] ;
203 -> 205 ;
206 [label="gini = 0.0\nsamples = 2\nvalue = [2, 0]\nclass = S", fillcolor="#e58139"] ;
196 -> 206 ;
207 [label="gini = 0.0\nsamples = 2\nvalue = [2, 0]\nclass = S", fillcolor="#e58139"] ;
195 -> 207 ;
208 [label="Age <= 31.5\ngini = 0.49\nsamples = 7\nvalue = [6, 8]\nclass = u", fillcolor="#cee6f8"] ;
162 -> 208 ;
209 [label="gini = 0.0\nsamples = 1\nvalue = [0, 3]\nclass = u", fillcolor="#399de5"] ;
208 -> 209 ;
210 [label="SibSp <= 0.5\ngini = 0.5\nsamples = 6\nvalue = [6, 5]\nclass = S", fillcolor="#fbeade"] ;
208 -> 210 ;
211 [label="gini = 0.5\nsamples = 5\nvalue = [5, 5]\nclass = S", fillcolor="#ffffff"] ;
210 -> 211 ;
212 [label="gini = 0.0\nsamples = 1\nvalue = [1, 0]\nclass = S", fillcolor="#e58139"] ;
210 -> 212 ;
213 [label="SibSp <= 0.5\ngini = 0.12\nsamples = 24\nvalue = [29, 2]\nclass = S", fillcolor="#e78a47"] ;
161 -> 213 ;
214 [label="Age <= 25.0\ngini = 0.14\nsamples = 20\nvalue = [24, 2]\nclass = S", fillcolor="#e78c49"] ;
213 -> 214 ;
215 [label="Age <= 9.0\ngini = 0.09\nsamples = 17\nvalue = [20, 1]\nclass = S", fillcolor="#e68743"] ;
214 -> 215 ;
216 [label="gini = 0.1\nsamples = 15\nvalue = [18, 1]\nclass = S", fillcolor="#e68844"] ;
215 -> 216 ;
217 [label="gini = 0.0\nsamples = 2\nvalue = [2, 0]\nclass = S", fillcolor="#e58139"] ;
215 -> 217 ;
218 [label="Age <= 30.0\ngini = 0.32\nsamples = 3\nvalue = [4, 1]\nclass = S", fillcolor="#eca06a"] ;
214 -> 218 ;
219 [label="gini = 0.0\nsamples = 1\nvalue = [0, 1]\nclass = u", fillcolor="#399de5"] ;
218 -> 219 ;
220 [label="gini = 0.0\nsamples = 2\nvalue = [4, 0]\nclass = S", fillcolor="#e58139"] ;
218 -> 220 ;
221 [label="gini = 0.0\nsamples = 4\nvalue = [5, 0]\nclass = S", fillcolor="#e58139"] ;
213 -> 221 ;
222 [label="Embarked <= 0.5\ngini = 0.45\nsamples = 53\nvalue = [28, 53]\nclass = u", fillcolor="#a2d1f3"] ;
160 -> 222 ;
223 [label="Age <= 2.0\ngini = 0.5\nsamples = 25\nvalue = [22, 22]\nclass = S", fillcolor="#ffffff"] ;
222 -> 223 ;
224 [label="SibSp <= 0.5\ngini = 0.35\nsamples = 5\nvalue = [7, 2]\nclass = S", fillcolor="#eca572"] ;
223 -> 224 ;
225 [label="gini = 0.0\nsamples = 3\nvalue = [7, 0]\nclass = S", fillcolor="#e58139"] ;
224 -> 225 ;
226 [label="gini = 0.0\nsamples = 2\nvalue = [0, 2]\nclass = u", fillcolor="#399de5"] ;
224 -> 226 ;
227 [label="Age <= 24.5\ngini = 0.49\nsamples = 20\nvalue = [15, 20]\nclass = u", fillcolor="#cee6f8"] ;
223 -> 227 ;
228 [label="SibSp <= 0.5\ngini = 0.41\nsamples = 13\nvalue = [7, 17]\nclass = u", fillcolor="#8bc5f0"] ;
227 -> 228 ;
229 [label="Age <= 21.0\ngini = 0.23\nsamples = 8\nvalue = [2, 13]\nclass = u", fillcolor="#57ace9"] ;
228 -> 229 ;
230 [label="Age <= 19.0\ngini = 0.32\nsamples = 5\nvalue = [2, 8]\nclass = u", fillcolor="#6ab6ec"] ;
229 -> 230 ;
231 [label="Age <= 11.5\ngini = 0.2\nsamples = 4\nvalue = [1, 8]\nclass = u", fillcolor="#52a9e8"] ;
230 -> 231 ;
232 [label="gini = 0.0\nsamples = 1\nvalue = [0, 1]\nclass = u", fillcolor="#399de5"] ;
231 -> 232 ;
233 [label="gini = 0.22\nsamples = 3\nvalue = [1, 7]\nclass = u", fillcolor="#55abe9"] ;
231 -> 233 ;
234 [label="gini = 0.0\nsamples = 1\nvalue = [1, 0]\nclass = S", fillcolor="#e58139"] ;
230 -> 234 ;
235 [label="gini = 0.0\nsamples = 3\nvalue = [0, 5]\nclass = u", fillcolor="#399de5"] ;
229 -> 235 ;
236 [label="SibSp <= 1.5\ngini = 0.49\nsamples = 5\nvalue = [5, 4]\nclass = S", fillcolor="#fae6d7"] ;
228 -> 236 ;
237 [label="Age <= 22.5\ngini = 0.5\nsamples = 4\nvalue = [4, 4]\nclass = S", fillcolor="#ffffff"] ;
236 -> 237 ;
238 [label="Age <= 20.0\ngini = 0.44\nsamples = 3\nvalue = [4, 2]\nclass = S", fillcolor="#f2c09c"] ;
237 -> 238 ;
239 [label="Age <= 18.5\ngini = 0.44\nsamples = 2\nvalue = [1, 2]\nclass = u", fillcolor="#9ccef2"] ;
238 -> 239 ;
240 [label="gini = 0.0\nsamples = 1\nvalue = [1, 0]\nclass = S", fillcolor="#e58139"] ;
239 -> 240 ;
241 [label="gini = 0.0\nsamples = 1\nvalue = [0, 2]\nclass = u", fillcolor="#399de5"] ;
239 -> 241 ;
242 [label="gini = 0.0\nsamples = 1\nvalue = [3, 0]\nclass = S", fillcolor="#e58139"] ;
238 -> 242 ;
243 [label="gini = 0.0\nsamples = 1\nvalue = [0, 2]\nclass = u", fillcolor="#399de5"] ;
237 -> 243 ;
244 [label="gini = 0.0\nsamples = 1\nvalue = [1, 0]\nclass = S", fillcolor="#e58139"] ;
236 -> 244 ;
245 [label="SibSp <= 0.5\ngini = 0.4\nsamples = 7\nvalue = [8, 3]\nclass = S", fillcolor="#efb083"] ;
227 -> 245 ;
246 [label="Age <= 27.0\ngini = 0.47\nsamples = 6\nvalue = [5, 3]\nclass = S", fillcolor="#f5cdb0"] ;
245 -> 246 ;
247 [label="Age <= 25.5\ngini = 0.44\nsamples = 3\nvalue = [1, 2]\nclass = u", fillcolor="#9ccef2"] ;
246 -> 247 ;
248 [label="gini = 0.0\nsamples = 1\nvalue = [1, 0]\nclass = S", fillcolor="#e58139"] ;
247 -> 248 ;
249 [label="gini = 0.0\nsamples = 2\nvalue = [0, 2]\nclass = u", fillcolor="#399de5"] ;
247 -> 249 ;
250 [label="Age <= 29.0\ngini = 0.32\nsamples = 3\nvalue = [4, 1]\nclass = S", fillcolor="#eca06a"] ;
246 -> 250 ;
251 [label="gini = 0.0\nsamples = 1\nvalue = [2, 0]\nclass = S", fillcolor="#e58139"] ;
250 -> 251 ;
252 [label="gini = 0.44\nsamples = 2\nvalue = [2, 1]\nclass = S", fillcolor="#f2c09c"] ;
250 -> 252 ;
253 [label="gini = 0.0\nsamples = 1\nvalue = [3, 0]\nclass = S", fillcolor="#e58139"] ;
245 -> 253 ;
254 [label="Age <= 14.25\ngini = 0.27\nsamples = 28\nvalue = [6, 31]\nclass = u", fillcolor="#5fb0ea"] ;
222 -> 254 ;
255 [label="Embarked <= 1.5\ngini = 0.07\nsamples = 20\nvalue = [1, 26]\nclass = u", fillcolor="#41a1e6"] ;
254 -> 255 ;
256 [label="Age <= 6.0\ngini = 0.24\nsamples = 5\nvalue = [1, 6]\nclass = u", fillcolor="#5aade9"] ;
255 -> 256 ;
257 [label="SibSp <= 0.5\ngini = 0.44\nsamples = 3\nvalue = [1, 2]\nclass = u", fillcolor="#9ccef2"] ;
256 -> 257 ;
258 [label="gini = 0.0\nsamples = 2\nvalue = [0, 2]\nclass = u", fillcolor="#399de5"] ;
257 -> 258 ;
259 [label="gini = 0.0\nsamples = 1\nvalue = [1, 0]\nclass = S", fillcolor="#e58139"] ;
257 -> 259 ;
260 [label="gini = 0.0\nsamples = 2\nvalue = [0, 4]\nclass = u", fillcolor="#399de5"] ;
256 -> 260 ;
261 [label="gini = 0.0\nsamples = 15\nvalue = [0, 20]\nclass = u", fillcolor="#399de5"] ;
255 -> 261 ;
262 [label="Age <= 14.75\ngini = 0.5\nsamples = 8\nvalue = [5, 5]\nclass = S", fillcolor="#ffffff"] ;
254 -> 262 ;
263 [label="gini = 0.0\nsamples = 1\nvalue = [1, 0]\nclass = S", fillcolor="#e58139"] ;
262 -> 263 ;
264 [label="Age <= 16.0\ngini = 0.49\nsamples = 7\nvalue = [4, 5]\nclass = u", fillcolor="#d7ebfa"] ;
262 -> 264 ;
265 [label="gini = 0.0\nsamples = 1\nvalue = [0, 2]\nclass = u", fillcolor="#399de5"] ;
264 -> 265 ;
266 [label="Embarked <= 1.5\ngini = 0.49\nsamples = 6\nvalue = [4, 3]\nclass = S", fillcolor="#f8e0ce"] ;
264 -> 266 ;
267 [label="gini = 0.0\nsamples = 1\nvalue = [1, 0]\nclass = S", fillcolor="#e58139"] ;
266 -> 267 ;
268 [label="Age <= 18.5\ngini = 0.5\nsamples = 5\nvalue = [3, 3]\nclass = S", fillcolor="#ffffff"] ;
266 -> 268 ;
269 [label="gini = 0.0\nsamples = 1\nvalue = [1, 0]\nclass = S", fillcolor="#e58139"] ;
268 -> 269 ;
270 [label="Age <= 26.25\ngini = 0.48\nsamples = 4\nvalue = [2, 3]\nclass = u", fillcolor="#bddef6"] ;
268 -> 270 ;
271 [label="Age <= 21.5\ngini = 0.38\nsamples = 3\nvalue = [1, 3]\nclass = u", fillcolor="#7bbeee"] ;
270 -> 271 ;
272 [label="Age <= 20.0\ngini = 0.5\nsamples = 2\nvalue = [1, 1]\nclass = S", fillcolor="#ffffff"] ;
271 -> 272 ;
273 [label="gini = 0.0\nsamples = 1\nvalue = [0, 1]\nclass = u", fillcolor="#399de5"] ;
272 -> 273 ;
274 [label="gini = 0.0\nsamples = 1\nvalue = [1, 0]\nclass = S", fillcolor="#e58139"] ;
272 -> 274 ;
275 [label="gini = 0.0\nsamples = 1\nvalue = [0, 2]\nclass = u", fillcolor="#399de5"] ;
271 -> 275 ;
276 [label="gini = 0.0\nsamples = 1\nvalue = [1, 0]\nclass = S", fillcolor="#e58139"] ;
270 -> 276 ;
277 [label="Sex <= 0.5\ngini = 0.48\nsamples = 62\nvalue = [56, 37]\nclass = S", fillcolor="#f6d4bc"] ;
159 -> 277 ;
278 [label="Parch <= 1.5\ngini = 0.42\nsamples = 30\nvalue = [30, 13]\nclass = S", fillcolor="#f0b88f"] ;
277 -> 278 ;
279 [label="Age <= 12.0\ngini = 0.46\nsamples = 17\nvalue = [16, 9]\nclass = S", fillcolor="#f4c8a8"] ;
278 -> 279 ;
280 [label="SibSp <= 2.0\ngini = 0.44\nsamples = 10\nvalue = [4, 8]\nclass = u", fillcolor="#9ccef2"] ;
279 -> 280 ;
281 [label="gini = 0.0\nsamples = 7\nvalue = [0, 8]\nclass = u", fillcolor="#399de5"] ;
280 -> 281 ;
282 [label="gini = 0.0\nsamples = 3\nvalue = [4, 0]\nclass = S", fillcolor="#e58139"] ;
280 -> 282 ;
283 [label="SibSp <= 2.5\ngini = 0.14\nsamples = 7\nvalue = [12, 1]\nclass = S", fillcolor="#e78c49"] ;
279 -> 283 ;
284 [label="Embarked <= 0.5\ngini = 0.15\nsamples = 6\nvalue = [11, 1]\nclass = S", fillcolor="#e78c4b"] ;
283 -> 284 ;
285 [label="gini = 0.0\nsamples = 3\nvalue = [8, 0]\nclass = S", fillcolor="#e58139"] ;
284 -> 285 ;
286 [label="Age <= 18.5\ngini = 0.38\nsamples = 3\nvalue = [3, 1]\nclass = S", fillcolor="#eeab7b"] ;
284 -> 286 ;
287 [label="gini = 0.0\nsamples = 2\nvalue = [3, 0]\nclass = S", fillcolor="#e58139"] ;
286 -> 287 ;
288 [label="gini = 0.0\nsamples = 1\nvalue = [0, 1]\nclass = u", fillcolor="#399de5"] ;
286 -> 288 ;
289 [label="gini = 0.0\nsamples = 1\nvalue = [1, 0]\nclass = S", fillcolor="#e58139"] ;
283 -> 289 ;
290 [label="SibSp <= 0.5\ngini = 0.35\nsamples = 13\nvalue = [14, 4]\nclass = S", fillcolor="#eca572"] ;
278 -> 290 ;
291 [label="gini = 0.0\nsamples = 1\nvalue = [0, 1]\nclass = u", fillcolor="#399de5"] ;
290 -> 291 ;
292 [label="SibSp <= 4.5\ngini = 0.29\nsamples = 12\nvalue = [14, 3]\nclass = S", fillcolor="#eb9c63"] ;
290 -> 292 ;
293 [label="Age <= 3.5\ngini = 0.4\nsamples = 8\nvalue = [8, 3]\nclass = S", fillcolor="#efb083"] ;
292 -> 293 ;
294 [label="gini = 0.0\nsamples = 2\nvalue = [0, 3]\nclass = u", fillcolor="#399de5"] ;
293 -> 294 ;
295 [label="gini = 0.0\nsamples = 6\nvalue = [8, 0]\nclass = S", fillcolor="#e58139"] ;
293 -> 295 ;
296 [label="gini = 0.0\nsamples = 4\nvalue = [6, 0]\nclass = S", fillcolor="#e58139"] ;
292 -> 296 ;
297 [label="Parch <= 3.5\ngini = 0.5\nsamples = 32\nvalue = [26, 24]\nclass = S", fillcolor="#fdf5f0"] ;
277 -> 297 ;
298 [label="SibSp <= 0.5\ngini = 0.5\nsamples = 31\nvalue = [25, 24]\nclass = S", fillcolor="#fefaf7"] ;
297 -> 298 ;
299 [label="Embarked <= 0.5\ngini = 0.31\nsamples = 11\nvalue = [4, 17]\nclass = u", fillcolor="#68b4eb"] ;
298 -> 299 ;
300 [label="Parch <= 1.5\ngini = 0.46\nsamples = 7\nvalue = [4, 7]\nclass = u", fillcolor="#aad5f4"] ;
299 -> 300 ;
301 [label="Age <= 14.5\ngini = 0.5\nsamples = 3\nvalue = [3, 3]\nclass = S", fillcolor="#ffffff"] ;
300 -> 301 ;
302 [label="gini = 0.38\nsamples = 2\nvalue = [3, 1]\nclass = S", fillcolor="#eeab7b"] ;
301 -> 302 ;
303 [label="gini = 0.0\nsamples = 1\nvalue = [0, 2]\nclass = u", fillcolor="#399de5"] ;
301 -> 303 ;
304 [label="Age <= 7.0\ngini = 0.32\nsamples = 4\nvalue = [1, 4]\nclass = u", fillcolor="#6ab6ec"] ;
300 -> 304 ;
305 [label="gini = 0.0\nsamples = 1\nvalue = [0, 2]\nclass = u", fillcolor="#399de5"] ;
304 -> 305 ;
306 [label="Age <= 17.0\ngini = 0.44\nsamples = 3\nvalue = [1, 2]\nclass = u", fillcolor="#9ccef2"] ;
304 -> 306 ;
307 [label="gini = 0.0\nsamples = 1\nvalue = [1, 0]\nclass = S", fillcolor="#e58139"] ;
306 -> 307 ;
308 [label="gini = 0.0\nsamples = 2\nvalue = [0, 2]\nclass = u", fillcolor="#399de5"] ;
306 -> 308 ;
309 [label="gini = 0.0\nsamples = 4\nvalue = [0, 10]\nclass = u", fillcolor="#399de5"] ;
299 -> 309 ;
310 [label="SibSp <= 6.0\ngini = 0.38\nsamples = 20\nvalue = [21, 7]\nclass = S", fillcolor="#eeab7b"] ;
298 -> 310 ;
311 [label="Age <= 30.5\ngini = 0.42\nsamples = 17\nvalue = [16, 7]\nclass = S", fillcolor="#f0b890"] ;
310 -> 311 ;
312 [label="Parch <= 1.5\ngini = 0.38\nsamples = 15\nvalue = [15, 5]\nclass = S", fillcolor="#eeab7b"] ;
311 -> 312 ;
313 [label="SibSp <= 2.5\ngini = 0.35\nsamples = 8\nvalue = [7, 2]\nclass = S", fillcolor="#eca572"] ;
312 -> 313 ;
314 [label="Embarked <= 0.5\ngini = 0.44\nsamples = 5\nvalue = [4, 2]\nclass = S", fillcolor="#f2c09c"] ;
313 -> 314 ;
315 [label="gini = 0.0\nsamples = 2\nvalue = [3, 0]\nclass = S", fillcolor="#e58139"] ;
314 -> 315 ;
316 [label="Age <= 4.88\ngini = 0.44\nsamples = 3\nvalue = [1, 2]\nclass = u", fillcolor="#9ccef2"] ;
314 -> 316 ;
317 [label="gini = 0.0\nsamples = 2\nvalue = [0, 2]\nclass = u", fillcolor="#399de5"] ;
316 -> 317 ;
318 [label="gini = 0.0\nsamples = 1\nvalue = [1, 0]\nclass = S", fillcolor="#e58139"] ;
316 -> 318 ;
319 [label="gini = 0.0\nsamples = 3\nvalue = [3, 0]\nclass = S", fillcolor="#e58139"] ;
313 -> 319 ;
320 [label="Age <= 13.0\ngini = 0.4\nsamples = 7\nvalue = [8, 3]\nclass = S", fillcolor="#efb083"] ;
312 -> 320 ;
321 [label="SibSp <= 2.5\ngini = 0.24\nsamples = 5\nvalue = [6, 1]\nclass = S", fillcolor="#e9965a"] ;
320 -> 321 ;
322 [label="gini = 0.0\nsamples = 1\nvalue = [2, 0]\nclass = S", fillcolor="#e58139"] ;
321 -> 322 ;
323 [label="Age <= 5.5\ngini = 0.32\nsamples = 4\nvalue = [4, 1]\nclass = S", fillcolor="#eca06a"] ;
321 -> 323 ;
324 [label="Age <= 3.5\ngini = 0.5\nsamples = 2\nvalue = [1, 1]\nclass = S", fillcolor="#ffffff"] ;
323 -> 324 ;
325 [label="gini = 0.0\nsamples = 1\nvalue = [1, 0]\nclass = S", fillcolor="#e58139"] ;
324 -> 325 ;
326 [label="gini = 0.0\nsamples = 1\nvalue = [0, 1]\nclass = u", fillcolor="#399de5"] ;
324 -> 326 ;
327 [label="gini = 0.0\nsamples = 2\nvalue = [3, 0]\nclass = S", fillcolor="#e58139"] ;
323 -> 327 ;
328 [label="SibSp <= 3.0\ngini = 0.5\nsamples = 2\nvalue = [2, 2]\nclass = S", fillcolor="#ffffff"] ;
320 -> 328 ;
329 [label="gini = 0.0\nsamples = 1\nvalue = [2, 0]\nclass = S", fillcolor="#e58139"] ;
328 -> 329 ;
330 [label="gini = 0.0\nsamples = 1\nvalue = [0, 2]\nclass = u", fillcolor="#399de5"] ;
328 -> 330 ;
331 [label="Age <= 31.5\ngini = 0.44\nsamples = 2\nvalue = [1, 2]\nclass = u", fillcolor="#9ccef2"] ;
311 -> 331 ;
332 [label="gini = 0.0\nsamples = 1\nvalue = [0, 2]\nclass = u", fillcolor="#399de5"] ;
331 -> 332 ;
333 [label="gini = 0.0\nsamples = 1\nvalue = [1, 0]\nclass = S", fillcolor="#e58139"] ;
331 -> 333 ;
334 [label="gini = 0.0\nsamples = 3\nvalue = [5, 0]\nclass = S", fillcolor="#e58139"] ;
310 -> 334 ;
335 [label="gini = 0.0\nsamples = 1\nvalue = [1, 0]\nclass = S", fillcolor="#e58139"] ;
297 -> 335 ;
336 [label="Sex <= 0.5\ngini = 0.08\nsamples = 52\nvalue = [69, 3]\nclass = S", fillcolor="#e68642"] ;
158 -> 336 ;
337 [label="gini = 0.0\nsamples = 40\nvalue = [58, 0]\nclass = S", fillcolor="#e58139"] ;
336 -> 337 ;
338 [label="Age <= 36.5\ngini = 0.34\nsamples = 12\nvalue = [11, 3]\nclass = S", fillcolor="#eca36f"] ;
336 -> 338 ;
339 [label="gini = 0.0\nsamples = 2\nvalue = [0, 2]\nclass = u", fillcolor="#399de5"] ;
338 -> 339 ;
340 [label="Age <= 38.5\ngini = 0.15\nsamples = 10\nvalue = [11, 1]\nclass = S", fillcolor="#e78c4b"] ;
338 -> 340 ;
341 [label="SibSp <= 0.5\ngini = 0.44\nsamples = 2\nvalue = [2, 1]\nclass = S", fillcolor="#f2c09c"] ;
340 -> 341 ;
342 [label="gini = 0.0\nsamples = 1\nvalue = [2, 0]\nclass = S", fillcolor="#e58139"] ;
341 -> 342 ;
343 [label="gini = 0.0\nsamples = 1\nvalue = [0, 1]\nclass = u", fillcolor="#399de5"] ;
341 -> 343 ;
344 [label="gini = 0.0\nsamples = 8\nvalue = [9, 0]\nclass = S", fillcolor="#e58139"] ;
340 -> 344 ;
}